<?xml version="1.0" encoding="UTF-8" standalone="yes"?>
<PMML xmlns="http://www.dmg.org/PMML-4_4" xmlns:data="http://jpmml.org/jpmml-model/InlineTable" version="4.4">
	<Header>
		<Application name="JPMML-SkLearn" version="1.6.8"/>
		<Timestamp>2020-12-05T23:12:38Z</Timestamp>
	</Header>
	<MiningBuildTask>
		<Extension>PMMLPipeline(steps=[('classifier', GradientBoostingClassifier())])</Extension>
	</MiningBuildTask>
	<DataDictionary>
		<DataField name="target" optype="categorical" dataType="double">
			<Value value="0.0"/>
			<Value value="1.0"/>
			<Value value="2.0"/>
		</DataField>
		<DataField name="sepal length (cm)" optype="continuous" dataType="float"/>
		<DataField name="sepal width (cm)" optype="continuous" dataType="float"/>
		<DataField name="petal length (cm)" optype="continuous" dataType="float"/>
		<DataField name="petal width (cm)" optype="continuous" dataType="float"/>
	</DataDictionary>
	<TransformationDictionary/>
	<MiningModel functionName="classification">
		<MiningSchema>
			<MiningField name="target" usageType="target"/>
			<MiningField name="petal width (cm)"/>
			<MiningField name="sepal length (cm)"/>
			<MiningField name="sepal width (cm)"/>
			<MiningField name="petal length (cm)"/>
		</MiningSchema>
		<LocalTransformations>
			<DerivedField name="double(petal width (cm))" optype="continuous" dataType="double">
				<FieldRef field="petal width (cm)"/>
			</DerivedField>
			<DerivedField name="double(sepal length (cm))" optype="continuous" dataType="double">
				<FieldRef field="sepal length (cm)"/>
			</DerivedField>
			<DerivedField name="double(sepal width (cm))" optype="continuous" dataType="double">
				<FieldRef field="sepal width (cm)"/>
			</DerivedField>
			<DerivedField name="double(petal length (cm))" optype="continuous" dataType="double">
				<FieldRef field="petal length (cm)"/>
			</DerivedField>
		</LocalTransformations>
		<Segmentation multipleModelMethod="modelChain" missingPredictionTreatment="returnMissing">
			<Segment id="1">
				<True/>
				<MiningModel functionName="regression">
					<MiningSchema>
						<MiningField name="double(petal width (cm))"/>
						<MiningField name="double(sepal length (cm))"/>
						<MiningField name="double(sepal width (cm))"/>
						<MiningField name="double(petal length (cm))"/>
					</MiningSchema>
					<Output>
						<OutputField name="decisionFunction(0.0)" optype="continuous" dataType="double" isFinalResult="false"/>
						<OutputField name="expDecisionFunction(0.0)" optype="continuous" dataType="double" feature="transformedValue" isFinalResult="false">
							<Apply function="exp">
								<FieldRef field="decisionFunction(0.0)"/>
							</Apply>
						</OutputField>
					</Output>
					<Targets>
						<Target rescaleConstant="-1.0986122886681098" rescaleFactor="0.1"/>
					</Targets>
					<Segmentation multipleModelMethod="sum">
						<Segment id="1">
							<True/>
							<TreeModel functionName="regression" missingValueStrategy="nullPrediction" noTrueChildStrategy="returnLastPrediction">
								<MiningSchema>
									<MiningField name="double(petal width (cm))"/>
								</MiningSchema>
								<Node score="-0.9999999999999998">
									<True/>
									<Node score="2.000000000000001">
										<SimplePredicate field="double(petal width (cm))" operator="lessOrEqual" value="0.800000011920929"/>
									</Node>
								</Node>
							</TreeModel>
						</Segment>
						<Segment id="2">
							<True/>
							<TreeModel functionName="regression" missingValueStrategy="nullPrediction" noTrueChildStrategy="returnLastPrediction">
								<MiningSchema>
									<MiningField name="double(petal width (cm))"/>
									<MiningField name="double(sepal length (cm))"/>
									<MiningField name="double(sepal width (cm))"/>
								</MiningSchema>
								<Node score="-0.9499097856047893">
									<True/>
									<Node score="1.6542737135653722">
										<SimplePredicate field="double(petal width (cm))" operator="lessOrEqual" value="0.800000011920929"/>
									</Node>
									<Node score="-0.914509746964825">
										<SimplePredicate field="double(sepal length (cm))" operator="lessOrEqual" value="4.950000047683716"/>
										<Node score="-0.9523112957673527">
											<SimplePredicate field="double(sepal width (cm))" operator="lessOrEqual" value="2.450000047683716"/>
										</Node>
									</Node>
									<Node score="-0.9524031586919517">
										<SimplePredicate field="double(petal width (cm))" operator="lessOrEqual" value="1.75"/>
									</Node>
								</Node>
							</TreeModel>
						</Segment>
						<Segment id="3">
							<True/>
							<TreeModel functionName="regression" missingValueStrategy="nullPrediction" noTrueChildStrategy="returnLastPrediction">
								<MiningSchema>
									<MiningField name="double(petal width (cm))"/>
									<MiningField name="double(sepal length (cm))"/>
									<MiningField name="double(sepal width (cm))"/>
									<MiningField name="double(petal length (cm))"/>
								</MiningSchema>
								<Node score="-0.9075396821236621">
									<True/>
									<Node score="1.4277301829780007">
										<SimplePredicate field="double(petal length (cm))" operator="lessOrEqual" value="2.449999988079071"/>
										<Node score="1.4277301829780007">
											<SimplePredicate field="double(sepal width (cm))" operator="lessOrEqual" value="3.549999952316284"/>
										</Node>
										<Node score="1.4277301829780007">
											<SimplePredicate field="double(petal width (cm))" operator="lessOrEqual" value="0.30000000447034836"/>
										</Node>
									</Node>
									<Node score="-0.8573120469070526">
										<SimplePredicate field="double(sepal length (cm))" operator="lessOrEqual" value="4.950000047683716"/>
										<Node score="-0.9120615950713507">
											<SimplePredicate field="double(sepal width (cm))" operator="lessOrEqual" value="2.450000047683716"/>
										</Node>
									</Node>
									<Node score="-0.9124067874570173">
										<SimplePredicate field="double(petal length (cm))" operator="lessOrEqual" value="5.1499998569488525"/>
									</Node>
								</Node>
							</TreeModel>
						</Segment>
						<Segment id="4">
							<True/>
							<TreeModel functionName="regression" missingValueStrategy="nullPrediction" noTrueChildStrategy="returnLastPrediction">
								<MiningSchema>
									<MiningField name="double(petal width (cm))"/>
									<MiningField name="double(sepal length (cm))"/>
									<MiningField name="double(sepal width (cm))"/>
									<MiningField name="double(petal length (cm))"/>
								</MiningSchema>
								<Node score="-0.8723442675907586">
									<True/>
									<Node score="1.2690989906155208">
										<SimplePredicate field="double(petal length (cm))" operator="lessOrEqual" value="2.449999988079071"/>
										<Node score="1.269098990615521">
											<SimplePredicate field="double(sepal width (cm))" operator="lessOrEqual" value="3.649999976158142"/>
										</Node>
										<Node score="1.269098990615521">
											<SimplePredicate field="double(petal length (cm))" operator="lessOrEqual" value="1.6500000357627869"/>
										</Node>
									</Node>
									<Node score="-0.8167321254581185">
										<SimplePredicate field="double(sepal length (cm))" operator="lessOrEqual" value="4.950000047683716"/>
										<Node score="-0.8779389207892385">
											<SimplePredicate field="double(petal width (cm))" operator="lessOrEqual" value="1.350000023841858"/>
										</Node>
									</Node>
									<Node score="-0.879149892300992">
										<SimplePredicate field="double(petal length (cm))" operator="lessOrEqual" value="5.1499998569488525"/>
									</Node>
								</Node>
							</TreeModel>
						</Segment>
						<Segment id="5">
							<True/>
							<TreeModel functionName="regression" missingValueStrategy="nullPrediction" noTrueChildStrategy="returnLastPrediction">
								<MiningSchema>
									<MiningField name="double(sepal length (cm))"/>
									<MiningField name="double(sepal width (cm))"/>
									<MiningField name="double(petal length (cm))"/>
								</MiningSchema>
								<Node score="-0.8428698427468162">
									<True/>
									<Node score="1.152854307076593">
										<SimplePredicate field="double(petal length (cm))" operator="lessOrEqual" value="2.449999988079071"/>
										<Node score="1.1528543070765933">
											<SimplePredicate field="double(sepal length (cm))" operator="lessOrEqual" value="5.3500001430511475"/>
										</Node>
										<Node score="1.152854307076593">
											<SimplePredicate field="double(petal length (cm))" operator="lessOrEqual" value="1.449999988079071"/>
										</Node>
									</Node>
									<Node score="-0.7867717474661339">
										<SimplePredicate field="double(sepal length (cm))" operator="lessOrEqual" value="4.950000047683716"/>
										<Node score="-0.8489390169277385">
											<SimplePredicate field="double(sepal width (cm))" operator="lessOrEqual" value="2.450000047683716"/>
										</Node>
									</Node>
									<Node score="-0.8510631994574499">
										<SimplePredicate field="double(petal length (cm))" operator="lessOrEqual" value="5.1499998569488525"/>
									</Node>
								</Node>
							</TreeModel>
						</Segment>
						<Segment id="6">
							<True/>
							<TreeModel functionName="regression" missingValueStrategy="nullPrediction" noTrueChildStrategy="returnLastPrediction">
								<MiningSchema>
									<MiningField name="double(petal width (cm))"/>
									<MiningField name="double(sepal length (cm))"/>
									<MiningField name="double(petal length (cm))"/>
								</MiningSchema>
								<Node score="-0.8180413191728151">
									<True/>
									<Node score="1.0647994946630313">
										<SimplePredicate field="double(petal width (cm))" operator="lessOrEqual" value="0.800000011920929"/>
									</Node>
									<Node score="-0.7640039486106656">
										<SimplePredicate field="double(sepal length (cm))" operator="lessOrEqual" value="4.950000047683716"/>
										<Node score="-0.824233838985657">
											<SimplePredicate field="double(petal length (cm))" operator="lessOrEqual" value="3.899999976158142"/>
										</Node>
									</Node>
									<Node score="-0.8272555392002112">
										<SimplePredicate field="double(petal length (cm))" operator="lessOrEqual" value="5.1499998569488525"/>
									</Node>
								</Node>
							</TreeModel>
						</Segment>
						<Segment id="7">
							<True/>
							<TreeModel functionName="regression" missingValueStrategy="nullPrediction" noTrueChildStrategy="returnLastPrediction">
								<MiningSchema>
									<MiningField name="double(sepal length (cm))"/>
									<MiningField name="double(petal length (cm))"/>
								</MiningSchema>
								<Node score="-0.7973053232904452">
									<True/>
									<Node score="0.9963973924559713">
										<SimplePredicate field="double(petal length (cm))" operator="lessOrEqual" value="2.449999988079071"/>
									</Node>
									<Node score="-0.746519182348012">
										<SimplePredicate field="double(sepal length (cm))" operator="lessOrEqual" value="4.950000047683716"/>
										<Node score="-0.8037318152851319">
											<SimplePredicate field="double(petal length (cm))" operator="lessOrEqual" value="3.899999976158142"/>
										</Node>
									</Node>
									<Node score="-0.8062490647484001">
										<SimplePredicate field="double(petal length (cm))" operator="lessOrEqual" value="5.1499998569488525"/>
									</Node>
								</Node>
							</TreeModel>
						</Segment>
						<Segment id="8">
							<True/>
							<TreeModel functionName="regression" missingValueStrategy="nullPrediction" noTrueChildStrategy="returnLastPrediction">
								<MiningSchema>
									<MiningField name="double(petal width (cm))"/>
									<MiningField name="double(sepal length (cm))"/>
									<MiningField name="double(sepal width (cm))"/>
									<MiningField name="double(petal length (cm))"/>
								</MiningSchema>
								<Node score="-0.7796827354616844">
									<True/>
									<Node score="0.9422047285688937">
										<SimplePredicate field="double(petal width (cm))" operator="lessOrEqual" value="0.800000011920929"/>
										<Node score="0.9422047285688936">
											<SimplePredicate field="double(sepal length (cm))" operator="lessOrEqual" value="5.049999952316284"/>
											<Node score="0.9422047285688937">
												<SimplePredicate field="double(petal length (cm))" operator="lessOrEqual" value="1.050000011920929"/>
											</Node>
										</Node>
										<Node score="0.9422047285688937">
											<SimplePredicate field="double(petal length (cm))" operator="lessOrEqual" value="1.25"/>
										</Node>
									</Node>
									<Node score="-0.7326926765742944">
										<SimplePredicate field="double(sepal length (cm))" operator="lessOrEqual" value="4.950000047683716"/>
										<Node score="-0.78616695534343">
											<SimplePredicate field="double(sepal width (cm))" operator="lessOrEqual" value="2.450000047683716"/>
										</Node>
									</Node>
									<Node score="-0.788599709405013">
										<SimplePredicate field="double(petal length (cm))" operator="lessOrEqual" value="5.1499998569488525"/>
									</Node>
								</Node>
							</TreeModel>
						</Segment>
						<Segment id="9">
							<True/>
							<TreeModel functionName="regression" missingValueStrategy="nullPrediction" noTrueChildStrategy="returnLastPrediction">
								<MiningSchema>
									<MiningField name="double(petal width (cm))"/>
									<MiningField name="double(sepal length (cm))"/>
									<MiningField name="double(sepal width (cm))"/>
									<MiningField name="double(petal length (cm))"/>
								</MiningSchema>
								<Node score="-0.7647119132157585">
									<True/>
									<Node score="0.8985884325645024">
										<SimplePredicate field="double(petal width (cm))" operator="lessOrEqual" value="0.800000011920929"/>
									</Node>
									<Node score="-0.7214626413034688">
										<SimplePredicate field="double(sepal length (cm))" operator="lessOrEqual" value="4.950000047683716"/>
										<Node score="-0.7705190938140266">
											<SimplePredicate field="double(sepal width (cm))" operator="lessOrEqual" value="2.450000047683716"/>
										</Node>
									</Node>
									<Node score="-0.7735131757607214">
										<SimplePredicate field="double(petal length (cm))" operator="lessOrEqual" value="5.1499998569488525"/>
									</Node>
								</Node>
							</TreeModel>
						</Segment>
						<Segment id="10">
							<True/>
							<TreeModel functionName="regression" missingValueStrategy="nullPrediction" noTrueChildStrategy="returnLastPrediction">
								<MiningSchema>
									<MiningField name="double(petal width (cm))"/>
									<MiningField name="double(sepal length (cm))"/>
									<MiningField name="double(sepal width (cm))"/>
									<MiningField name="double(petal length (cm))"/>
								</MiningSchema>
								<Node score="-0.7521980781296661">
									<True/>
									<Node score="0.8630325354453802">
										<SimplePredicate field="double(petal width (cm))" operator="lessOrEqual" value="0.800000011920929"/>
										<Node score="0.8630325354453805">
											<SimplePredicate field="double(sepal width (cm))" operator="lessOrEqual" value="3.75"/>
										</Node>
										<Node score="0.8630325354453804">
											<SimplePredicate field="double(petal length (cm))" operator="lessOrEqual" value="1.449999988079071"/>
										</Node>
									</Node>
									<Node score="-0.7124992809565438">
										<SimplePredicate field="double(sepal length (cm))" operator="lessOrEqual" value="4.950000047683716"/>
										<Node score="-0.7575587026761103">
											<SimplePredicate field="double(petal length (cm))" operator="lessOrEqual" value="3.899999976158142"/>
										</Node>
									</Node>
									<Node score="-0.7602706162439027">
										<SimplePredicate field="double(petal length (cm))" operator="lessOrEqual" value="5.1499998569488525"/>
									</Node>
								</Node>
							</TreeModel>
						</Segment>
						<Segment id="11">
							<True/>
							<TreeModel functionName="regression" missingValueStrategy="nullPrediction" noTrueChildStrategy="returnLastPrediction">
								<MiningSchema>
									<MiningField name="double(sepal length (cm))"/>
									<MiningField name="double(sepal width (cm))"/>
									<MiningField name="double(petal length (cm))"/>
								</MiningSchema>
								<Node score="-0.741285819048045">
									<True/>
									<Node score="0.8337408235768403">
										<SimplePredicate field="double(petal length (cm))" operator="lessOrEqual" value="2.449999988079071"/>
										<Node score="0.8337408235768407">
											<SimplePredicate field="double(sepal width (cm))" operator="lessOrEqual" value="3.850000023841858"/>
											<Node score="0.8337408235768405">
												<SimplePredicate field="double(sepal length (cm))" operator="lessOrEqual" value="4.450000047683716"/>
											</Node>
										</Node>
									</Node>
									<Node score="-0.7051771442800617">
										<SimplePredicate field="double(sepal length (cm))" operator="lessOrEqual" value="4.950000047683716"/>
										<Node score="-0.746382154824634">
											<SimplePredicate field="double(sepal width (cm))" operator="lessOrEqual" value="2.450000047683716"/>
										</Node>
									</Node>
									<Node score="-0.7489019593337101">
										<SimplePredicate field="double(petal length (cm))" operator="lessOrEqual" value="5.1499998569488525"/>
									</Node>
								</Node>
							</TreeModel>
						</Segment>
						<Segment id="12">
							<True/>
							<TreeModel functionName="regression" missingValueStrategy="nullPrediction" noTrueChildStrategy="returnLastPrediction">
								<MiningSchema>
									<MiningField name="double(petal width (cm))"/>
									<MiningField name="double(sepal length (cm))"/>
									<MiningField name="double(sepal width (cm))"/>
									<MiningField name="double(petal length (cm))"/>
								</MiningSchema>
								<Node score="-0.7322362723150478">
									<True/>
									<Node score="0.8093976998753675">
										<SimplePredicate field="double(petal width (cm))" operator="lessOrEqual" value="0.800000011920929"/>
										<Node score="0.8093976998753677">
											<SimplePredicate field="double(sepal width (cm))" operator="lessOrEqual" value="3.049999952316284"/>
										</Node>
										<Node score="0.8093976998753677">
											<SimplePredicate field="double(sepal length (cm))" operator="lessOrEqual" value="4.75"/>
										</Node>
									</Node>
									<Node score="-0.6991484112673966">
										<SimplePredicate field="double(sepal length (cm))" operator="lessOrEqual" value="4.950000047683716"/>
										<Node score="-0.7367075715937169">
											<SimplePredicate field="double(petal width (cm))" operator="lessOrEqual" value="1.350000023841858"/>
										</Node>
									</Node>
									<Node score="-0.7390817314949779">
										<SimplePredicate field="double(petal length (cm))" operator="lessOrEqual" value="5.1499998569488525"/>
									</Node>
								</Node>
							</TreeModel>
						</Segment>
						<Segment id="13">
							<True/>
							<TreeModel functionName="regression" missingValueStrategy="nullPrediction" noTrueChildStrategy="returnLastPrediction">
								<MiningSchema>
									<MiningField name="double(sepal length (cm))"/>
									<MiningField name="double(petal length (cm))"/>
								</MiningSchema>
								<Node score="-0.7244508992127376">
									<True/>
									<Node score="0.7890183393211209">
										<SimplePredicate field="double(petal length (cm))" operator="lessOrEqual" value="2.449999988079071"/>
									</Node>
									<Node score="-0.6941522602086156">
										<SimplePredicate field="double(sepal length (cm))" operator="lessOrEqual" value="4.950000047683716"/>
										<Node score="-0.7283067435741757">
											<SimplePredicate field="double(petal length (cm))" operator="lessOrEqual" value="3.899999976158142"/>
										</Node>
									</Node>
									<Node score="-0.7304192001918836">
										<SimplePredicate field="double(petal length (cm))" operator="lessOrEqual" value="5.1499998569488525"/>
									</Node>
								</Node>
							</TreeModel>
						</Segment>
						<Segment id="14">
							<True/>
							<TreeModel functionName="regression" missingValueStrategy="nullPrediction" noTrueChildStrategy="returnLastPrediction">
								<MiningSchema>
									<MiningField name="double(petal width (cm))"/>
									<MiningField name="double(sepal length (cm))"/>
								</MiningSchema>
								<Node score="-0.7157546756909872">
									<True/>
									<Node score="0.77183650786649">
										<SimplePredicate field="double(petal width (cm))" operator="lessOrEqual" value="0.800000011920929"/>
									</Node>
									<Node score="-0.7233334207940911">
										<SimplePredicate field="double(petal width (cm))" operator="lessOrEqual" value="1.8499999642372131"/>
										<Node score="-0.7105861704814347">
											<SimplePredicate field="double(sepal length (cm))" operator="lessOrEqual" value="4.950000047683716"/>
										</Node>
									</Node>
									<Node score="-0.720247122222607">
										<SimplePredicate field="double(sepal length (cm))" operator="lessOrEqual" value="6.0"/>
									</Node>
								</Node>
							</TreeModel>
						</Segment>
						<Segment id="15">
							<True/>
							<TreeModel functionName="regression" missingValueStrategy="nullPrediction" noTrueChildStrategy="returnLastPrediction">
								<MiningSchema>
									<MiningField name="double(petal width (cm))"/>
									<MiningField name="double(sepal length (cm))"/>
									<MiningField name="double(sepal width (cm))"/>
									<MiningField name="double(petal length (cm))"/>
								</MiningSchema>
								<Node score="-0.7093867844391046">
									<True/>
									<Node score="0.757290901086223">
										<SimplePredicate field="double(petal length (cm))" operator="lessOrEqual" value="2.449999988079071"/>
										<Node score="0.7572909010862228">
											<SimplePredicate field="double(sepal length (cm))" operator="lessOrEqual" value="5.3500001430511475"/>
											<Node score="0.7572909010862227">
												<SimplePredicate field="double(sepal width (cm))" operator="lessOrEqual" value="3.75"/>
											</Node>
										</Node>
										<Node score="0.7572909010862229">
											<SimplePredicate field="double(petal length (cm))" operator="lessOrEqual" value="1.25"/>
										</Node>
									</Node>
									<Node score="-0.7229581036112528">
										<SimplePredicate field="double(petal width (cm))" operator="lessOrEqual" value="1.8499999642372131"/>
										<Node score="-0.7134785926860885">
											<SimplePredicate field="double(petal length (cm))" operator="lessOrEqual" value="4.75"/>
										</Node>
									</Node>
									<Node score="-0.7132894253665533">
										<SimplePredicate field="double(sepal length (cm))" operator="lessOrEqual" value="6.0"/>
									</Node>
								</Node>
							</TreeModel>
						</Segment>
						<Segment id="16">
							<True/>
							<TreeModel functionName="regression" missingValueStrategy="nullPrediction" noTrueChildStrategy="returnLastPrediction">
								<MiningSchema>
									<MiningField name="double(petal width (cm))"/>
									<MiningField name="double(sepal length (cm))"/>
									<MiningField name="double(petal length (cm))"/>
								</MiningSchema>
								<Node score="-0.7038744573403313">
									<True/>
									<Node score="0.7449200589908634">
										<SimplePredicate field="double(petal length (cm))" operator="lessOrEqual" value="2.449999988079071"/>
									</Node>
									<Node score="-0.7182094084394011">
										<SimplePredicate field="double(petal width (cm))" operator="lessOrEqual" value="1.8499999642372131"/>
										<Node score="-0.7080594242307514">
											<SimplePredicate field="double(petal length (cm))" operator="lessOrEqual" value="4.75"/>
										</Node>
									</Node>
									<Node score="-0.7069981697991436">
										<SimplePredicate field="double(sepal length (cm))" operator="lessOrEqual" value="6.0"/>
									</Node>
								</Node>
							</TreeModel>
						</Segment>
						<Segment id="17">
							<True/>
							<TreeModel functionName="regression" missingValueStrategy="nullPrediction" noTrueChildStrategy="returnLastPrediction">
								<MiningSchema>
									<MiningField name="double(petal width (cm))"/>
									<MiningField name="double(sepal length (cm))"/>
									<MiningField name="double(sepal width (cm))"/>
									<MiningField name="double(petal length (cm))"/>
								</MiningSchema>
								<Node score="-0.699027665449179">
									<True/>
									<Node score="0.7343585801448395">
										<SimplePredicate field="double(petal width (cm))" operator="lessOrEqual" value="0.800000011920929"/>
										<Node score="0.7343585801448396">
											<SimplePredicate field="double(sepal width (cm))" operator="lessOrEqual" value="3.450000047683716"/>
											<Node score="0.7343585801448392">
												<SimplePredicate field="double(petal length (cm))" operator="lessOrEqual" value="1.6500000357627869"/>
											</Node>
										</Node>
										<Node score="0.7343585801448395">
											<SimplePredicate field="double(petal length (cm))" operator="lessOrEqual" value="1.100000023841858"/>
										</Node>
									</Node>
									<Node score="-0.715107232484266">
										<SimplePredicate field="double(petal width (cm))" operator="lessOrEqual" value="1.8499999642372131"/>
										<Node score="-0.702723763438936">
											<SimplePredicate field="double(petal length (cm))" operator="lessOrEqual" value="4.75"/>
										</Node>
									</Node>
									<Node score="-0.7017256845561148">
										<SimplePredicate field="double(sepal length (cm))" operator="lessOrEqual" value="6.0"/>
									</Node>
								</Node>
							</TreeModel>
						</Segment>
						<Segment id="18">
							<True/>
							<TreeModel functionName="regression" missingValueStrategy="nullPrediction" noTrueChildStrategy="returnLastPrediction">
								<MiningSchema>
									<MiningField name="double(petal width (cm))"/>
									<MiningField name="double(sepal length (cm))"/>
									<MiningField name="double(petal length (cm))"/>
								</MiningSchema>
								<Node score="-0.6948828994485476">
									<True/>
									<Node score="0.7253132511873417">
										<SimplePredicate field="double(petal width (cm))" operator="lessOrEqual" value="0.800000011920929"/>
									</Node>
									<Node score="-0.7115225105194172">
										<SimplePredicate field="double(petal width (cm))" operator="lessOrEqual" value="1.8499999642372131"/>
										<Node score="-0.6986227544851517">
											<SimplePredicate field="double(petal length (cm))" operator="lessOrEqual" value="4.75"/>
										</Node>
									</Node>
									<Node score="-0.6972450594193691">
										<SimplePredicate field="double(sepal length (cm))" operator="lessOrEqual" value="6.0"/>
									</Node>
								</Node>
							</TreeModel>
						</Segment>
						<Segment id="19">
							<True/>
							<TreeModel functionName="regression" missingValueStrategy="nullPrediction" noTrueChildStrategy="returnLastPrediction">
								<MiningSchema>
									<MiningField name="double(petal width (cm))"/>
									<MiningField name="double(sepal length (cm))"/>
									<MiningField name="double(petal length (cm))"/>
								</MiningSchema>
								<Node score="-0.6912406415000941">
									<True/>
									<Node score="0.7175435639644775">
										<SimplePredicate field="double(petal length (cm))" operator="lessOrEqual" value="2.449999988079071"/>
									</Node>
									<Node score="-0.7094006331694613">
										<SimplePredicate field="double(petal width (cm))" operator="lessOrEqual" value="1.8499999642372131"/>
										<Node score="-0.6945320769174914">
											<SimplePredicate field="double(petal length (cm))" operator="lessOrEqual" value="4.75"/>
										</Node>
									</Node>
									<Node score="-0.693280007765765">
										<SimplePredicate field="double(sepal length (cm))" operator="lessOrEqual" value="6.0"/>
									</Node>
								</Node>
							</TreeModel>
						</Segment>
						<Segment id="20">
							<True/>
							<TreeModel functionName="regression" missingValueStrategy="nullPrediction" noTrueChildStrategy="returnLastPrediction">
								<MiningSchema>
									<MiningField name="double(petal width (cm))"/>
									<MiningField name="double(sepal length (cm))"/>
									<MiningField name="double(petal length (cm))"/>
								</MiningSchema>
								<Node score="-0.6881138869131573">
									<True/>
									<Node score="0.710854022477969">
										<SimplePredicate field="double(petal width (cm))" operator="lessOrEqual" value="0.800000011920929"/>
									</Node>
									<Node score="-0.7067008150584797">
										<SimplePredicate field="double(petal width (cm))" operator="lessOrEqual" value="1.8499999642372131"/>
										<Node score="-0.6914152918439695">
											<SimplePredicate field="double(petal length (cm))" operator="lessOrEqual" value="4.75"/>
										</Node>
									</Node>
									<Node score="-0.6898952673619245">
										<SimplePredicate field="double(sepal length (cm))" operator="lessOrEqual" value="6.0"/>
									</Node>
								</Node>
							</TreeModel>
						</Segment>
						<Segment id="21">
							<True/>
							<TreeModel functionName="regression" missingValueStrategy="nullPrediction" noTrueChildStrategy="returnLastPrediction">
								<MiningSchema>
									<MiningField name="double(petal width (cm))"/>
									<MiningField name="double(sepal length (cm))"/>
									<MiningField name="double(sepal width (cm))"/>
									<MiningField name="double(petal length (cm))"/>
								</MiningSchema>
								<Node score="-0.6853733112641567">
									<True/>
									<Node score="0.7050817277083786">
										<SimplePredicate field="double(petal length (cm))" operator="lessOrEqual" value="2.449999988079071"/>
										<Node score="0.7050817277083786">
											<SimplePredicate field="double(sepal width (cm))" operator="lessOrEqual" value="3.75"/>
											<Node score="0.7050817277083785">
												<SimplePredicate field="double(sepal length (cm))" operator="lessOrEqual" value="4.3500001430511475"/>
											</Node>
										</Node>
										<Node score="0.7050817277083785">
											<SimplePredicate field="double(sepal width (cm))" operator="lessOrEqual" value="3.850000023841858"/>
										</Node>
									</Node>
									<Node score="-0.7039687586967746">
										<SimplePredicate field="double(petal width (cm))" operator="lessOrEqual" value="1.8499999642372131"/>
										<Node score="-0.6888537591584886">
											<SimplePredicate field="double(petal length (cm))" operator="lessOrEqual" value="4.75"/>
										</Node>
									</Node>
									<Node score="-0.6868920636077065">
										<SimplePredicate field="double(sepal length (cm))" operator="lessOrEqual" value="6.0"/>
									</Node>
								</Node>
							</TreeModel>
						</Segment>
						<Segment id="22">
							<True/>
							<TreeModel functionName="regression" missingValueStrategy="nullPrediction" noTrueChildStrategy="returnLastPrediction">
								<MiningSchema>
									<MiningField name="double(petal width (cm))"/>
									<MiningField name="double(sepal length (cm))"/>
									<MiningField name="double(petal length (cm))"/>
								</MiningSchema>
								<Node score="-0.6830032764856074">
									<True/>
									<Node score="0.7000916954962031">
										<SimplePredicate field="double(petal width (cm))" operator="lessOrEqual" value="0.800000011920929"/>
									</Node>
									<Node score="-0.7022114546239598">
										<SimplePredicate field="double(petal width (cm))" operator="lessOrEqual" value="1.8499999642372131"/>
										<Node score="-0.686423548881912">
											<SimplePredicate field="double(petal length (cm))" operator="lessOrEqual" value="4.75"/>
										</Node>
									</Node>
									<Node score="-0.6842936905017506">
										<SimplePredicate field="double(sepal length (cm))" operator="lessOrEqual" value="6.0"/>
									</Node>
								</Node>
							</TreeModel>
						</Segment>
						<Segment id="23">
							<True/>
							<TreeModel functionName="regression" missingValueStrategy="nullPrediction" noTrueChildStrategy="returnLastPrediction">
								<MiningSchema>
									<MiningField name="double(petal width (cm))"/>
									<MiningField name="double(sepal length (cm))"/>
									<MiningField name="double(petal length (cm))"/>
								</MiningSchema>
								<Node score="-0.6809369187947741">
									<True/>
									<Node score="0.6957713094073525">
										<SimplePredicate field="double(petal width (cm))" operator="lessOrEqual" value="0.800000011920929"/>
									</Node>
									<Node score="-0.7007179646746916">
										<SimplePredicate field="double(petal width (cm))" operator="lessOrEqual" value="1.8499999642372131"/>
										<Node score="-0.6842936275743157">
											<SimplePredicate field="double(petal length (cm))" operator="lessOrEqual" value="4.75"/>
										</Node>
									</Node>
									<Node score="-0.6820361784734859">
										<SimplePredicate field="double(sepal length (cm))" operator="lessOrEqual" value="6.0"/>
									</Node>
								</Node>
							</TreeModel>
						</Segment>
						<Segment id="24">
							<True/>
							<TreeModel functionName="regression" missingValueStrategy="nullPrediction" noTrueChildStrategy="returnLastPrediction">
								<MiningSchema>
									<MiningField name="double(petal width (cm))"/>
									<MiningField name="double(sepal length (cm))"/>
									<MiningField name="double(petal length (cm))"/>
								</MiningSchema>
								<Node score="-0.6791339660732194">
									<True/>
									<Node score="0.6920255824964449">
										<SimplePredicate field="double(petal length (cm))" operator="lessOrEqual" value="2.449999988079071"/>
										<Node score="0.6920255824964449">
											<SimplePredicate field="double(sepal length (cm))" operator="lessOrEqual" value="4.3500001430511475"/>
										</Node>
										<Node score="0.6920255824964449">
											<SimplePredicate field="double(petal width (cm))" operator="lessOrEqual" value="0.15000000223517418"/>
										</Node>
									</Node>
									<Node score="-0.6984293549722902">
										<SimplePredicate field="double(petal width (cm))" operator="lessOrEqual" value="1.8499999642372131"/>
										<Node score="-0.6826487670277467">
											<SimplePredicate field="double(petal length (cm))" operator="lessOrEqual" value="4.75"/>
										</Node>
									</Node>
									<Node score="-0.6800532701980971">
										<SimplePredicate field="double(sepal length (cm))" operator="lessOrEqual" value="6.0"/>
									</Node>
								</Node>
							</TreeModel>
						</Segment>
						<Segment id="25">
							<True/>
							<TreeModel functionName="regression" missingValueStrategy="nullPrediction" noTrueChildStrategy="returnLastPrediction">
								<MiningSchema>
									<MiningField name="double(petal width (cm))"/>
									<MiningField name="double(sepal length (cm))"/>
									<MiningField name="double(petal length (cm))"/>
								</MiningSchema>
								<Node score="-0.677560485605148">
									<True/>
									<Node score="0.6887740631210792">
										<SimplePredicate field="double(petal width (cm))" operator="lessOrEqual" value="0.800000011920929"/>
										<Node score="0.6887740631210794">
											<SimplePredicate field="double(petal length (cm))" operator="lessOrEqual" value="1.050000011920929"/>
										</Node>
										<Node score="0.6887740631210792">
											<SimplePredicate field="double(petal width (cm))" operator="lessOrEqual" value="0.15000000223517418"/>
										</Node>
									</Node>
									<Node score="-0.7100120744186885">
										<SimplePredicate field="double(petal width (cm))" operator="lessOrEqual" value="1.8499999642372131"/>
										<Node score="-0.6853760560008911">
											<SimplePredicate field="double(sepal length (cm))" operator="lessOrEqual" value="7.099999904632568"/>
										</Node>
									</Node>
									<Node score="-0.6783283604950766">
										<SimplePredicate field="double(sepal length (cm))" operator="lessOrEqual" value="6.0"/>
									</Node>
								</Node>
							</TreeModel>
						</Segment>
						<Segment id="26">
							<True/>
							<TreeModel functionName="regression" missingValueStrategy="nullPrediction" noTrueChildStrategy="returnLastPrediction">
								<MiningSchema>
									<MiningField name="double(petal width (cm))"/>
									<MiningField name="double(sepal length (cm))"/>
									<MiningField name="double(sepal width (cm))"/>
									<MiningField name="double(petal length (cm))"/>
								</MiningSchema>
								<Node score="-0.6761874538032037">
									<True/>
									<Node score="0.6859487186206163">
										<SimplePredicate field="double(petal length (cm))" operator="lessOrEqual" value="2.449999988079071"/>
										<Node score="0.6859487186206163">
											<SimplePredicate field="double(sepal width (cm))" operator="lessOrEqual" value="2.600000023841858"/>
										</Node>
										<Node score="0.6859487186206163">
											<SimplePredicate field="double(petal width (cm))" operator="lessOrEqual" value="0.15000000223517418"/>
										</Node>
									</Node>
									<Node score="-0.709456739767888">
										<SimplePredicate field="double(petal width (cm))" operator="lessOrEqual" value="1.8499999642372131"/>
										<Node score="-0.6839806734900192">
											<SimplePredicate field="double(sepal length (cm))" operator="lessOrEqual" value="7.099999904632568"/>
										</Node>
									</Node>
									<Node score="-0.6768512509778662">
										<SimplePredicate field="double(sepal length (cm))" operator="lessOrEqual" value="6.0"/>
									</Node>
								</Node>
							</TreeModel>
						</Segment>
						<Segment id="27">
							<True/>
							<TreeModel functionName="regression" missingValueStrategy="nullPrediction" noTrueChildStrategy="returnLastPrediction">
								<MiningSchema>
									<MiningField name="double(petal width (cm))"/>
									<MiningField name="double(sepal length (cm))"/>
									<MiningField name="double(sepal width (cm))"/>
									<MiningField name="double(petal length (cm))"/>
								</MiningSchema>
								<Node score="-0.6749882803508604">
									<True/>
									<Node score="0.6834915659320936">
										<SimplePredicate field="double(petal length (cm))" operator="lessOrEqual" value="2.449999988079071"/>
										<Node score="0.6834915659320935">
											<SimplePredicate field="double(sepal width (cm))" operator="lessOrEqual" value="3.950000047683716"/>
										</Node>
										<Node score="0.6834915659320935">
											<SimplePredicate field="double(sepal width (cm))" operator="lessOrEqual" value="4.049999952316284"/>
										</Node>
									</Node>
									<Node score="-0.7088580955769922">
										<SimplePredicate field="double(petal width (cm))" operator="lessOrEqual" value="1.8499999642372131"/>
										<Node score="-0.6825447921139622">
											<SimplePredicate field="double(sepal length (cm))" operator="lessOrEqual" value="7.099999904632568"/>
										</Node>
									</Node>
									<Node score="-0.6755489421689006">
										<SimplePredicate field="double(sepal length (cm))" operator="lessOrEqual" value="6.0"/>
									</Node>
								</Node>
							</TreeModel>
						</Segment>
						<Segment id="28">
							<True/>
							<TreeModel functionName="regression" missingValueStrategy="nullPrediction" noTrueChildStrategy="returnLastPrediction">
								<MiningSchema>
									<MiningField name="double(petal width (cm))"/>
									<MiningField name="double(sepal length (cm))"/>
									<MiningField name="double(sepal width (cm))"/>
									<MiningField name="double(petal length (cm))"/>
								</MiningSchema>
								<Node score="-0.6739408668726052">
									<True/>
									<Node score="0.6813528885023956">
										<SimplePredicate field="double(petal length (cm))" operator="lessOrEqual" value="2.449999988079071"/>
										<Node score="0.6813528885023956">
											<SimplePredicate field="double(sepal width (cm))" operator="lessOrEqual" value="2.600000023841858"/>
										</Node>
										<Node score="0.6813528885023956">
											<SimplePredicate field="double(petal width (cm))" operator="lessOrEqual" value="0.15000000223517418"/>
										</Node>
									</Node>
									<Node score="-0.707499367062942">
										<SimplePredicate field="double(petal width (cm))" operator="lessOrEqual" value="1.8499999642372131"/>
										<Node score="-0.681155593589098">
											<SimplePredicate field="double(sepal length (cm))" operator="lessOrEqual" value="7.099999904632568"/>
										</Node>
									</Node>
									<Node score="-0.6744307278251013">
										<SimplePredicate field="double(sepal length (cm))" operator="lessOrEqual" value="6.0"/>
									</Node>
								</Node>
							</TreeModel>
						</Segment>
						<Segment id="29">
							<True/>
							<TreeModel functionName="regression" missingValueStrategy="nullPrediction" noTrueChildStrategy="returnLastPrediction">
								<MiningSchema>
									<MiningField name="double(petal width (cm))"/>
									<MiningField name="double(sepal length (cm))"/>
									<MiningField name="double(petal length (cm))"/>
								</MiningSchema>
								<Node score="-0.6732995670276888">
									<True/>
									<Node score="0.6794914658741871">
										<SimplePredicate field="double(petal length (cm))" operator="lessOrEqual" value="2.449999988079071"/>
										<Node score="0.6794914658741871">
											<SimplePredicate field="double(sepal length (cm))" operator="lessOrEqual" value="4.3500001430511475"/>
										</Node>
										<Node score="0.6794914658741871">
											<SimplePredicate field="double(petal length (cm))" operator="lessOrEqual" value="1.100000023841858"/>
										</Node>
									</Node>
									<Node score="-0.704420246865571">
										<SimplePredicate field="double(petal width (cm))" operator="lessOrEqual" value="1.8499999642372131"/>
										<Node score="-0.6798541646469763">
											<SimplePredicate field="double(sepal length (cm))" operator="lessOrEqual" value="7.099999904632568"/>
										</Node>
									</Node>
									<Node score="-0.6737396470403325">
										<SimplePredicate field="double(sepal length (cm))" operator="lessOrEqual" value="6.0"/>
									</Node>
								</Node>
							</TreeModel>
						</Segment>
						<Segment id="30">
							<True/>
							<TreeModel functionName="regression" missingValueStrategy="nullPrediction" noTrueChildStrategy="returnLastPrediction">
								<MiningSchema>
									<MiningField name="double(petal width (cm))"/>
									<MiningField name="double(sepal length (cm))"/>
									<MiningField name="double(petal length (cm))"/>
								</MiningSchema>
								<Node score="-0.6727249595438234">
									<True/>
									<Node score="0.6783679660119066">
										<SimplePredicate field="double(petal length (cm))" operator="lessOrEqual" value="2.449999988079071"/>
									</Node>
									<Node score="-0.7015747737873922">
										<SimplePredicate field="double(petal width (cm))" operator="lessOrEqual" value="1.8499999642372131"/>
										<Node score="-0.67891053543036">
											<SimplePredicate field="double(sepal length (cm))" operator="lessOrEqual" value="7.099999904632568"/>
										</Node>
									</Node>
									<Node score="-0.6731302154195273">
										<SimplePredicate field="double(sepal length (cm))" operator="lessOrEqual" value="6.0"/>
									</Node>
								</Node>
							</TreeModel>
						</Segment>
						<Segment id="31">
							<True/>
							<TreeModel functionName="regression" missingValueStrategy="nullPrediction" noTrueChildStrategy="returnLastPrediction">
								<MiningSchema>
									<MiningField name="double(petal width (cm))"/>
									<MiningField name="double(sepal length (cm))"/>
									<MiningField name="double(petal length (cm))"/>
								</MiningSchema>
								<Node score="-0.671963776868084">
									<True/>
									<Node score="0.676888298003505">
										<SimplePredicate field="double(petal length (cm))" operator="lessOrEqual" value="2.449999988079071"/>
										<Node score="0.676888298003505">
											<SimplePredicate field="double(sepal length (cm))" operator="lessOrEqual" value="4.3500001430511475"/>
										</Node>
										<Node score="0.676888298003505">
											<SimplePredicate field="double(petal length (cm))" operator="lessOrEqual" value="1.100000023841858"/>
										</Node>
									</Node>
									<Node score="-0.7010580706568893">
										<SimplePredicate field="double(petal width (cm))" operator="lessOrEqual" value="1.8499999642372131"/>
										<Node score="-0.6779833725977347">
											<SimplePredicate field="double(sepal length (cm))" operator="lessOrEqual" value="7.099999904632568"/>
										</Node>
									</Node>
									<Node score="-0.6723133039269341">
										<SimplePredicate field="double(sepal length (cm))" operator="lessOrEqual" value="6.0"/>
									</Node>
								</Node>
							</TreeModel>
						</Segment>
						<Segment id="32">
							<True/>
							<TreeModel functionName="regression" missingValueStrategy="nullPrediction" noTrueChildStrategy="returnLastPrediction">
								<MiningSchema>
									<MiningField name="double(petal width (cm))"/>
									<MiningField name="double(sepal length (cm))"/>
									<MiningField name="double(sepal width (cm))"/>
								</MiningSchema>
								<Node score="-0.6712987250638469">
									<True/>
									<Node score="0.6759943016591299">
										<SimplePredicate field="double(petal width (cm))" operator="lessOrEqual" value="0.800000011920929"/>
										<Node score="0.6759943016591299">
											<SimplePredicate field="double(sepal length (cm))" operator="lessOrEqual" value="4.3500001430511475"/>
										</Node>
										<Node score="0.6759943016591299">
											<SimplePredicate field="double(sepal width (cm))" operator="lessOrEqual" value="2.600000023841858"/>
										</Node>
									</Node>
									<Node score="-0.7004782584491057">
										<SimplePredicate field="double(petal width (cm))" operator="lessOrEqual" value="1.8499999642372131"/>
										<Node score="-0.6773479513380414">
											<SimplePredicate field="double(sepal length (cm))" operator="lessOrEqual" value="7.099999904632568"/>
										</Node>
									</Node>
									<Node score="-0.6716063897706764">
										<SimplePredicate field="double(sepal length (cm))" operator="lessOrEqual" value="6.0"/>
									</Node>
								</Node>
							</TreeModel>
						</Segment>
						<Segment id="33">
							<True/>
							<TreeModel functionName="regression" missingValueStrategy="nullPrediction" noTrueChildStrategy="returnLastPrediction">
								<MiningSchema>
									<MiningField name="double(petal width (cm))"/>
									<MiningField name="double(sepal length (cm))"/>
									<MiningField name="double(petal length (cm))"/>
								</MiningSchema>
								<Node score="-0.6707173744344933">
									<True/>
									<Node score="0.6748185655523532">
										<SimplePredicate field="double(petal length (cm))" operator="lessOrEqual" value="2.449999988079071"/>
										<Node score="0.6748185655523532">
											<SimplePredicate field="double(petal length (cm))" operator="lessOrEqual" value="1.050000011920929"/>
										</Node>
										<Node score="0.6748185655523532">
											<SimplePredicate field="double(petal width (cm))" operator="lessOrEqual" value="0.15000000223517418"/>
										</Node>
									</Node>
									<Node score="-0.6998408000928238">
										<SimplePredicate field="double(petal width (cm))" operator="lessOrEqual" value="1.8499999642372131"/>
										<Node score="-0.6765671892440375">
											<SimplePredicate field="double(sepal length (cm))" operator="lessOrEqual" value="7.099999904632568"/>
										</Node>
									</Node>
									<Node score="-0.6709839448156243">
										<SimplePredicate field="double(sepal length (cm))" operator="lessOrEqual" value="6.0"/>
									</Node>
								</Node>
							</TreeModel>
						</Segment>
						<Segment id="34">
							<True/>
							<TreeModel functionName="regression" missingValueStrategy="nullPrediction" noTrueChildStrategy="returnLastPrediction">
								<MiningSchema>
									<MiningField name="double(petal width (cm))"/>
									<MiningField name="double(sepal length (cm))"/>
									<MiningField name="double(sepal width (cm))"/>
									<MiningField name="double(petal length (cm))"/>
								</MiningSchema>
								<Node score="-0.6702092824999242">
									<True/>
									<Node score="0.6741200785793712">
										<SimplePredicate field="double(petal width (cm))" operator="lessOrEqual" value="0.800000011920929"/>
										<Node score="0.6741200785793712">
											<SimplePredicate field="double(sepal width (cm))" operator="lessOrEqual" value="2.600000023841858"/>
										</Node>
										<Node score="0.6741200785793712">
											<SimplePredicate field="double(petal length (cm))" operator="lessOrEqual" value="1.050000011920929"/>
										</Node>
									</Node>
									<Node score="-0.6991496086173539">
										<SimplePredicate field="double(petal width (cm))" operator="lessOrEqual" value="1.8499999642372131"/>
										<Node score="-0.6760598777431698">
											<SimplePredicate field="double(sepal length (cm))" operator="lessOrEqual" value="7.099999904632568"/>
										</Node>
									</Node>
									<Node score="-0.6704441274080446">
										<SimplePredicate field="double(sepal length (cm))" operator="lessOrEqual" value="6.0"/>
									</Node>
								</Node>
							</TreeModel>
						</Segment>
						<Segment id="35">
							<True/>
							<TreeModel functionName="regression" missingValueStrategy="nullPrediction" noTrueChildStrategy="returnLastPrediction">
								<MiningSchema>
									<MiningField name="double(petal width (cm))"/>
									<MiningField name="double(sepal length (cm))"/>
									<MiningField name="double(petal length (cm))"/>
								</MiningSchema>
								<Node score="-0.6697650479442714">
									<True/>
									<Node score="0.673182396380094">
										<SimplePredicate field="double(petal length (cm))" operator="lessOrEqual" value="2.449999988079071"/>
									</Node>
									<Node score="-0.698412155055315">
										<SimplePredicate field="double(petal width (cm))" operator="lessOrEqual" value="1.8499999642372131"/>
										<Node score="-0.6751422779404759">
											<SimplePredicate field="double(sepal length (cm))" operator="lessOrEqual" value="7.099999904632568"/>
										</Node>
									</Node>
									<Node score="-0.669969306861846">
										<SimplePredicate field="double(sepal length (cm))" operator="lessOrEqual" value="6.0"/>
									</Node>
								</Node>
							</TreeModel>
						</Segment>
						<Segment id="36">
							<True/>
							<TreeModel functionName="regression" missingValueStrategy="nullPrediction" noTrueChildStrategy="returnLastPrediction">
								<MiningSchema>
									<MiningField name="double(petal width (cm))"/>
									<MiningField name="double(sepal length (cm))"/>
								</MiningSchema>
								<Node score="-0.6695140241578725">
									<True/>
									<Node score="0.6726464276110975">
										<SimplePredicate field="double(petal width (cm))" operator="lessOrEqual" value="0.800000011920929"/>
									</Node>
									<Node score="-0.6960624204627115">
										<SimplePredicate field="double(petal width (cm))" operator="lessOrEqual" value="1.8499999642372131"/>
										<Node score="-0.6746299258427294">
											<SimplePredicate field="double(sepal length (cm))" operator="lessOrEqual" value="7.099999904632568"/>
										</Node>
									</Node>
									<Node score="-0.6697029644223556">
										<SimplePredicate field="double(sepal length (cm))" operator="lessOrEqual" value="6.0"/>
									</Node>
								</Node>
							</TreeModel>
						</Segment>
						<Segment id="37">
							<True/>
							<TreeModel functionName="regression" missingValueStrategy="nullPrediction" noTrueChildStrategy="returnLastPrediction">
								<MiningSchema>
									<MiningField name="double(petal width (cm))"/>
									<MiningField name="double(sepal length (cm))"/>
								</MiningSchema>
								<Node score="-0.6691572067678686">
									<True/>
									<Node score="0.6721625862261665">
										<SimplePredicate field="double(petal width (cm))" operator="lessOrEqual" value="0.800000011920929"/>
									</Node>
									<Node score="-0.6954067631823041">
										<SimplePredicate field="double(petal width (cm))" operator="lessOrEqual" value="1.8499999642372131"/>
										<Node score="-0.6742458345001754">
											<SimplePredicate field="double(sepal length (cm))" operator="lessOrEqual" value="7.099999904632568"/>
										</Node>
									</Node>
									<Node score="-0.6693237283110408">
										<SimplePredicate field="double(sepal length (cm))" operator="lessOrEqual" value="6.0"/>
									</Node>
								</Node>
							</TreeModel>
						</Segment>
						<Segment id="38">
							<True/>
							<TreeModel functionName="regression" missingValueStrategy="nullPrediction" noTrueChildStrategy="returnLastPrediction">
								<MiningSchema>
									<MiningField name="double(petal width (cm))"/>
									<MiningField name="double(sepal length (cm))"/>
									<MiningField name="double(petal length (cm))"/>
								</MiningSchema>
								<Node score="-0.6688451707687626">
									<True/>
									<Node score="0.67147254764889">
										<SimplePredicate field="double(petal length (cm))" operator="lessOrEqual" value="2.449999988079071"/>
									</Node>
									<Node score="-0.6947120247411047">
										<SimplePredicate field="double(petal width (cm))" operator="lessOrEqual" value="1.8499999642372131"/>
										<Node score="-0.6734875518634812">
											<SimplePredicate field="double(sepal length (cm))" operator="lessOrEqual" value="7.099999904632568"/>
										</Node>
									</Node>
									<Node score="-0.6689904947548817">
										<SimplePredicate field="double(sepal length (cm))" operator="lessOrEqual" value="6.0"/>
									</Node>
								</Node>
							</TreeModel>
						</Segment>
						<Segment id="39">
							<True/>
							<TreeModel functionName="regression" missingValueStrategy="nullPrediction" noTrueChildStrategy="returnLastPrediction">
								<MiningSchema>
									<MiningField name="double(petal width (cm))"/>
									<MiningField name="double(sepal length (cm))"/>
									<MiningField name="double(petal length (cm))"/>
								</MiningSchema>
								<Node score="-0.6686752874791141">
									<True/>
									<Node score="0.6710915404754345">
										<SimplePredicate field="double(petal length (cm))" operator="lessOrEqual" value="2.449999988079071"/>
									</Node>
									<Node score="-0.6926745723494527">
										<SimplePredicate field="double(petal width (cm))" operator="lessOrEqual" value="1.8499999642372131"/>
										<Node score="-0.6730964946689775">
											<SimplePredicate field="double(sepal length (cm))" operator="lessOrEqual" value="7.099999904632568"/>
										</Node>
									</Node>
									<Node score="-0.6688099640064181">
										<SimplePredicate field="double(sepal length (cm))" operator="lessOrEqual" value="6.0"/>
									</Node>
								</Node>
							</TreeModel>
						</Segment>
						<Segment id="40">
							<True/>
							<TreeModel functionName="regression" missingValueStrategy="nullPrediction" noTrueChildStrategy="returnLastPrediction">
								<MiningSchema>
									<MiningField name="double(petal width (cm))"/>
									<MiningField name="double(sepal length (cm))"/>
									<MiningField name="double(sepal width (cm))"/>
								</MiningSchema>
								<Node score="-0.6684251302598637">
									<True/>
									<Node score="0.6707491598577697">
										<SimplePredicate field="double(petal width (cm))" operator="lessOrEqual" value="0.800000011920929"/>
										<Node score="0.6708877184741885">
											<SimplePredicate field="double(sepal width (cm))" operator="lessOrEqual" value="2.600000023841858"/>
										</Node>
										<Node score="0.6707491598577697">
											<SimplePredicate field="double(sepal length (cm))" operator="lessOrEqual" value="4.3500001430511475"/>
										</Node>
									</Node>
									<Node score="-0.6920553504947792">
										<SimplePredicate field="double(petal width (cm))" operator="lessOrEqual" value="1.8499999642372131"/>
										<Node score="-0.6725792421681032">
											<SimplePredicate field="double(sepal length (cm))" operator="lessOrEqual" value="7.099999904632568"/>
										</Node>
									</Node>
									<Node score="-0.6685371072755394">
										<SimplePredicate field="double(sepal width (cm))" operator="lessOrEqual" value="2.75"/>
									</Node>
								</Node>
							</TreeModel>
						</Segment>
						<Segment id="41">
							<True/>
							<TreeModel functionName="regression" missingValueStrategy="nullPrediction" noTrueChildStrategy="returnLastPrediction">
								<MiningSchema>
									<MiningField name="double(petal width (cm))"/>
									<MiningField name="double(sepal length (cm))"/>
									<MiningField name="double(sepal width (cm))"/>
								</MiningSchema>
								<Node score="-0.6682048739412708">
									<True/>
									<Node score="0.6702373199283347">
										<SimplePredicate field="double(petal width (cm))" operator="lessOrEqual" value="0.800000011920929"/>
										<Node score="0.6703584509008143">
											<SimplePredicate field="double(sepal width (cm))" operator="lessOrEqual" value="2.600000023841858"/>
										</Node>
										<Node score="0.6702373199283347">
											<SimplePredicate field="double(petal width (cm))" operator="lessOrEqual" value="0.15000000223517418"/>
										</Node>
									</Node>
									<Node score="-0.691393628251602">
										<SimplePredicate field="double(petal width (cm))" operator="lessOrEqual" value="1.8499999642372131"/>
										<Node score="-0.672166360268059">
											<SimplePredicate field="double(sepal length (cm))" operator="lessOrEqual" value="7.099999904632568"/>
										</Node>
									</Node>
									<Node score="-0.6683032940613911">
										<SimplePredicate field="double(sepal width (cm))" operator="lessOrEqual" value="2.75"/>
									</Node>
								</Node>
							</TreeModel>
						</Segment>
						<Segment id="42">
							<True/>
							<TreeModel functionName="regression" missingValueStrategy="nullPrediction" noTrueChildStrategy="returnLastPrediction">
								<MiningSchema>
									<MiningField name="double(petal width (cm))"/>
									<MiningField name="double(sepal length (cm))"/>
									<MiningField name="double(sepal width (cm))"/>
									<MiningField name="double(petal length (cm))"/>
								</MiningSchema>
								<Node score="-0.668041381959375">
									<True/>
									<Node score="0.6699654921498192">
										<SimplePredicate field="double(petal length (cm))" operator="lessOrEqual" value="2.449999988079071"/>
										<Node score="0.6702021406281462">
											<SimplePredicate field="double(sepal width (cm))" operator="lessOrEqual" value="2.600000023841858"/>
										</Node>
										<Node score="0.669965492149819">
											<SimplePredicate field="double(sepal length (cm))" operator="lessOrEqual" value="4.3500001430511475"/>
										</Node>
									</Node>
									<Node score="-0.688918926747876">
										<SimplePredicate field="double(petal width (cm))" operator="lessOrEqual" value="1.8499999642372131"/>
										<Node score="-0.6717209795918573">
											<SimplePredicate field="double(sepal length (cm))" operator="lessOrEqual" value="7.099999904632568"/>
										</Node>
									</Node>
									<Node score="-0.6682410633269169">
										<SimplePredicate field="double(sepal width (cm))" operator="lessOrEqual" value="2.75"/>
									</Node>
								</Node>
							</TreeModel>
						</Segment>
						<Segment id="43">
							<True/>
							<TreeModel functionName="regression" missingValueStrategy="nullPrediction" noTrueChildStrategy="returnLastPrediction">
								<MiningSchema>
									<MiningField name="double(petal width (cm))"/>
									<MiningField name="double(sepal length (cm))"/>
									<MiningField name="double(sepal width (cm))"/>
									<MiningField name="double(petal length (cm))"/>
								</MiningSchema>
								<Node score="-0.6678730272763133">
									<True/>
									<Node score="0.6697552997906702">
										<SimplePredicate field="double(petal length (cm))" operator="lessOrEqual" value="2.449999988079071"/>
										<Node score="0.6699804718120992">
											<SimplePredicate field="double(sepal width (cm))" operator="lessOrEqual" value="2.600000023841858"/>
										</Node>
										<Node score="0.6697552997906702">
											<SimplePredicate field="double(petal length (cm))" operator="lessOrEqual" value="1.050000011920929"/>
										</Node>
									</Node>
									<Node score="-0.6861476693378307">
										<SimplePredicate field="double(petal width (cm))" operator="lessOrEqual" value="1.8499999642372131"/>
										<Node score="-0.6714542350435608">
											<SimplePredicate field="double(sepal length (cm))" operator="lessOrEqual" value="7.099999904632568"/>
										</Node>
									</Node>
									<Node score="-0.6680835267646883">
										<SimplePredicate field="double(sepal width (cm))" operator="lessOrEqual" value="2.75"/>
									</Node>
								</Node>
							</TreeModel>
						</Segment>
						<Segment id="44">
							<True/>
							<TreeModel functionName="regression" missingValueStrategy="nullPrediction" noTrueChildStrategy="returnLastPrediction">
								<MiningSchema>
									<MiningField name="double(petal width (cm))"/>
									<MiningField name="double(sepal length (cm))"/>
									<MiningField name="double(sepal width (cm))"/>
								</MiningSchema>
								<Node score="-0.6677467208240381">
									<True/>
									<Node score="0.669526566642083">
										<SimplePredicate field="double(petal width (cm))" operator="lessOrEqual" value="0.800000011920929"/>
										<Node score="0.6698554579258008">
											<SimplePredicate field="double(sepal width (cm))" operator="lessOrEqual" value="2.600000023841858"/>
										</Node>
										<Node score="0.6695265666420829">
											<SimplePredicate field="double(sepal length (cm))" operator="lessOrEqual" value="4.3500001430511475"/>
										</Node>
									</Node>
									<Node score="-0.6841999863123426">
										<SimplePredicate field="double(petal width (cm))" operator="lessOrEqual" value="1.8499999642372131"/>
										<Node score="-0.6710789181170618">
											<SimplePredicate field="double(sepal length (cm))" operator="lessOrEqual" value="7.099999904632568"/>
										</Node>
									</Node>
									<Node score="-0.6680286210216295">
										<SimplePredicate field="double(sepal width (cm))" operator="lessOrEqual" value="2.75"/>
									</Node>
								</Node>
							</TreeModel>
						</Segment>
						<Segment id="45">
							<True/>
							<TreeModel functionName="regression" missingValueStrategy="nullPrediction" noTrueChildStrategy="returnLastPrediction">
								<MiningSchema>
									<MiningField name="double(petal width (cm))"/>
									<MiningField name="double(sepal length (cm))"/>
									<MiningField name="double(sepal width (cm))"/>
								</MiningSchema>
								<Node score="-0.6676364737513595">
									<True/>
									<Node score="0.6691684556687449">
										<SimplePredicate field="double(petal width (cm))" operator="lessOrEqual" value="0.800000011920929"/>
										<Node score="0.6694559972846854">
											<SimplePredicate field="double(sepal width (cm))" operator="lessOrEqual" value="2.600000023841858"/>
										</Node>
									</Node>
									<Node score="-0.6823972452656613">
										<SimplePredicate field="double(petal width (cm))" operator="lessOrEqual" value="1.8499999642372131"/>
										<Node score="-0.6708766663557864">
											<SimplePredicate field="double(sepal length (cm))" operator="lessOrEqual" value="7.099999904632568"/>
										</Node>
									</Node>
									<Node score="-0.667972925670205">
										<SimplePredicate field="double(sepal width (cm))" operator="lessOrEqual" value="2.75"/>
									</Node>
								</Node>
							</TreeModel>
						</Segment>
						<Segment id="46">
							<True/>
							<TreeModel functionName="regression" missingValueStrategy="nullPrediction" noTrueChildStrategy="returnLastPrediction">
								<MiningSchema>
									<MiningField name="double(petal width (cm))"/>
									<MiningField name="double(sepal length (cm))"/>
									<MiningField name="double(sepal width (cm))"/>
								</MiningSchema>
								<Node score="-0.6675181186271154">
									<True/>
									<Node score="0.6690520253475979">
										<SimplePredicate field="double(petal width (cm))" operator="lessOrEqual" value="0.800000011920929"/>
										<Node score="0.6691977706224256">
											<SimplePredicate field="double(sepal width (cm))" operator="lessOrEqual" value="2.600000023841858"/>
										</Node>
										<Node score="0.668937263629551">
											<SimplePredicate field="double(sepal length (cm))" operator="lessOrEqual" value="5.450000047683716"/>
										</Node>
									</Node>
									<Node score="-0.6803990654853622">
										<SimplePredicate field="double(petal width (cm))" operator="lessOrEqual" value="1.8499999642372131"/>
										<Node score="-0.6704698754819387">
											<SimplePredicate field="double(sepal length (cm))" operator="lessOrEqual" value="7.099999904632568"/>
										</Node>
									</Node>
									<Node score="-0.6678453432442064">
										<SimplePredicate field="double(sepal width (cm))" operator="lessOrEqual" value="2.75"/>
									</Node>
								</Node>
							</TreeModel>
						</Segment>
						<Segment id="47">
							<True/>
							<TreeModel functionName="regression" missingValueStrategy="nullPrediction" noTrueChildStrategy="returnLastPrediction">
								<MiningSchema>
									<MiningField name="double(petal width (cm))"/>
									<MiningField name="double(sepal length (cm))"/>
									<MiningField name="double(sepal width (cm))"/>
									<MiningField name="double(petal length (cm))"/>
								</MiningSchema>
								<Node score="-0.6674115978340777">
									<True/>
									<Node score="0.6688840372224637">
										<SimplePredicate field="double(petal length (cm))" operator="lessOrEqual" value="2.449999988079071"/>
										<Node score="0.6691084709911314">
											<SimplePredicate field="double(sepal width (cm))" operator="lessOrEqual" value="2.600000023841858"/>
										</Node>
										<Node score="0.6687746199664802">
											<SimplePredicate field="double(sepal length (cm))" operator="lessOrEqual" value="5.450000047683716"/>
										</Node>
									</Node>
									<Node score="-0.6800892342190484">
										<SimplePredicate field="double(petal width (cm))" operator="lessOrEqual" value="1.8499999642372131"/>
										<Node score="-0.6701792688745839">
											<SimplePredicate field="double(sepal length (cm))" operator="lessOrEqual" value="7.099999904632568"/>
										</Node>
									</Node>
									<Node score="-0.6676988240759478">
										<SimplePredicate field="double(sepal width (cm))" operator="lessOrEqual" value="2.75"/>
									</Node>
								</Node>
							</TreeModel>
						</Segment>
						<Segment id="48">
							<True/>
							<TreeModel functionName="regression" missingValueStrategy="nullPrediction" noTrueChildStrategy="returnLastPrediction">
								<MiningSchema>
									<MiningField name="double(petal width (cm))"/>
									<MiningField name="double(sepal length (cm))"/>
									<MiningField name="double(sepal width (cm))"/>
									<MiningField name="double(petal length (cm))"/>
								</MiningSchema>
								<Node score="-0.6673438942809912">
									<True/>
									<Node score="0.6686394593353411">
										<SimplePredicate field="double(petal length (cm))" operator="lessOrEqual" value="2.449999988079071"/>
										<Node score="0.6688357002981229">
											<SimplePredicate field="double(sepal width (cm))" operator="lessOrEqual" value="2.600000023841858"/>
										</Node>
										<Node score="0.6685437565576032">
											<SimplePredicate field="double(sepal length (cm))" operator="lessOrEqual" value="5.450000047683716"/>
										</Node>
									</Node>
									<Node score="-0.6783665104392743">
										<SimplePredicate field="double(petal width (cm))" operator="lessOrEqual" value="1.8499999642372131"/>
										<Node score="-0.670021810025971">
											<SimplePredicate field="double(sepal length (cm))" operator="lessOrEqual" value="7.099999904632568"/>
										</Node>
									</Node>
									<Node score="-0.6675694145540186">
										<SimplePredicate field="double(sepal width (cm))" operator="lessOrEqual" value="2.75"/>
									</Node>
								</Node>
							</TreeModel>
						</Segment>
						<Segment id="49">
							<True/>
							<TreeModel functionName="regression" missingValueStrategy="nullPrediction" noTrueChildStrategy="returnLastPrediction">
								<MiningSchema>
									<MiningField name="double(petal width (cm))"/>
									<MiningField name="double(sepal length (cm))"/>
									<MiningField name="double(sepal width (cm))"/>
								</MiningSchema>
								<Node score="-0.667260050918479">
									<True/>
									<Node score="0.6685502524194333">
										<SimplePredicate field="double(petal width (cm))" operator="lessOrEqual" value="0.800000011920929"/>
										<Node score="0.6683707096099457">
											<SimplePredicate field="double(sepal length (cm))" operator="lessOrEqual" value="5.3500001430511475"/>
											<Node score="0.6686344472220509">
												<SimplePredicate field="double(sepal width (cm))" operator="lessOrEqual" value="2.600000023841858"/>
											</Node>
										</Node>
										<Node score="0.6684573471477998">
											<SimplePredicate field="double(sepal width (cm))" operator="lessOrEqual" value="3.950000047683716"/>
										</Node>
									</Node>
									<Node score="-0.6769145970292885">
										<SimplePredicate field="double(petal width (cm))" operator="lessOrEqual" value="1.8499999642372131"/>
										<Node score="-0.6697121924248828">
											<SimplePredicate field="double(sepal length (cm))" operator="lessOrEqual" value="7.099999904632568"/>
										</Node>
									</Node>
									<Node score="-0.6675132772261639">
										<SimplePredicate field="double(sepal width (cm))" operator="lessOrEqual" value="2.75"/>
									</Node>
								</Node>
							</TreeModel>
						</Segment>
						<Segment id="50">
							<True/>
							<TreeModel functionName="regression" missingValueStrategy="nullPrediction" noTrueChildStrategy="returnLastPrediction">
								<MiningSchema>
									<MiningField name="double(petal width (cm))"/>
									<MiningField name="double(sepal length (cm))"/>
									<MiningField name="double(sepal width (cm))"/>
								</MiningSchema>
								<Node score="-0.6671871073919889">
									<True/>
									<Node score="0.6684296723105735">
										<SimplePredicate field="double(petal width (cm))" operator="lessOrEqual" value="0.800000011920929"/>
										<Node score="0.6682603853185137">
											<SimplePredicate field="double(sepal length (cm))" operator="lessOrEqual" value="5.3500001430511475"/>
											<Node score="0.6685090579863099">
												<SimplePredicate field="double(sepal width (cm))" operator="lessOrEqual" value="2.600000023841858"/>
											</Node>
										</Node>
										<Node score="0.6683420745139045">
											<SimplePredicate field="double(sepal length (cm))" operator="lessOrEqual" value="5.450000047683716"/>
										</Node>
									</Node>
									<Node score="-0.6756393305694244">
										<SimplePredicate field="double(petal width (cm))" operator="lessOrEqual" value="1.8499999642372131"/>
										<Node score="-0.669505649480056">
											<SimplePredicate field="double(sepal length (cm))" operator="lessOrEqual" value="7.099999904632568"/>
										</Node>
									</Node>
									<Node score="-0.6674657361223187">
										<SimplePredicate field="double(sepal width (cm))" operator="lessOrEqual" value="2.75"/>
									</Node>
								</Node>
							</TreeModel>
						</Segment>
						<Segment id="51">
							<True/>
							<TreeModel functionName="regression" missingValueStrategy="nullPrediction" noTrueChildStrategy="returnLastPrediction">
								<MiningSchema>
									<MiningField name="double(petal width (cm))"/>
									<MiningField name="double(sepal length (cm))"/>
									<MiningField name="double(sepal width (cm))"/>
								</MiningSchema>
								<Node score="-0.6671220873149247">
									<True/>
									<Node score="0.6683394233109419">
										<SimplePredicate field="double(petal width (cm))" operator="lessOrEqual" value="0.800000011920929"/>
										<Node score="0.6681227246469228">
											<SimplePredicate field="double(sepal length (cm))" operator="lessOrEqual" value="5.450000047683716"/>
											<Node score="0.6683392550058562">
												<SimplePredicate field="double(sepal width (cm))" operator="lessOrEqual" value="2.600000023841858"/>
											</Node>
										</Node>
										<Node score="0.6683394233109419">
											<SimplePredicate field="double(petal width (cm))" operator="lessOrEqual" value="0.30000000447034836"/>
										</Node>
									</Node>
									<Node score="-0.6745257987170705">
										<SimplePredicate field="double(petal width (cm))" operator="lessOrEqual" value="1.8499999642372131"/>
										<Node score="-0.6692828732414203">
											<SimplePredicate field="double(sepal length (cm))" operator="lessOrEqual" value="7.099999904632568"/>
										</Node>
									</Node>
									<Node score="-0.6673662855708298">
										<SimplePredicate field="double(sepal width (cm))" operator="lessOrEqual" value="2.75"/>
									</Node>
								</Node>
							</TreeModel>
						</Segment>
						<Segment id="52">
							<True/>
							<TreeModel functionName="regression" missingValueStrategy="nullPrediction" noTrueChildStrategy="returnLastPrediction">
								<MiningSchema>
									<MiningField name="double(petal width (cm))"/>
									<MiningField name="double(sepal length (cm))"/>
									<MiningField name="double(sepal width (cm))"/>
								</MiningSchema>
								<Node score="-0.6670895167434395">
									<True/>
									<Node score="0.6682270912029631">
										<SimplePredicate field="double(petal width (cm))" operator="lessOrEqual" value="0.800000011920929"/>
										<Node score="0.6680202261386272">
											<SimplePredicate field="double(sepal length (cm))" operator="lessOrEqual" value="5.450000047683716"/>
											<Node score="0.6682269381154501">
												<SimplePredicate field="double(sepal width (cm))" operator="lessOrEqual" value="2.600000023841858"/>
											</Node>
										</Node>
										<Node score="0.6682270912029631">
											<SimplePredicate field="double(sepal width (cm))" operator="lessOrEqual" value="4.099999904632568"/>
										</Node>
									</Node>
									<Node score="-0.6739782620892888">
										<SimplePredicate field="double(petal width (cm))" operator="lessOrEqual" value="1.8499999642372131"/>
										<Node score="-0.6690015565953162">
											<SimplePredicate field="double(sepal length (cm))" operator="lessOrEqual" value="7.099999904632568"/>
										</Node>
									</Node>
									<Node score="-0.6673165133567714">
										<SimplePredicate field="double(sepal width (cm))" operator="lessOrEqual" value="2.75"/>
									</Node>
								</Node>
							</TreeModel>
						</Segment>
						<Segment id="53">
							<True/>
							<TreeModel functionName="regression" missingValueStrategy="nullPrediction" noTrueChildStrategy="returnLastPrediction">
								<MiningSchema>
									<MiningField name="double(petal width (cm))"/>
									<MiningField name="double(sepal length (cm))"/>
									<MiningField name="double(sepal width (cm))"/>
									<MiningField name="double(petal length (cm))"/>
								</MiningSchema>
								<Node score="-0.6670384383135509">
									<True/>
									<Node score="0.6681270501073845">
										<SimplePredicate field="double(petal width (cm))" operator="lessOrEqual" value="0.800000011920929"/>
										<Node score="0.6679374697290928">
											<SimplePredicate field="double(sepal length (cm))" operator="lessOrEqual" value="5.450000047683716"/>
											<Node score="0.6678749453860652">
												<SimplePredicate field="double(sepal length (cm))" operator="lessOrEqual" value="4.950000047683716"/>
											</Node>
										</Node>
										<Node score="0.6681270501073845">
											<SimplePredicate field="double(petal length (cm))" operator="lessOrEqual" value="1.300000011920929"/>
										</Node>
									</Node>
									<Node score="-0.6737035934038802">
										<SimplePredicate field="double(petal width (cm))" operator="lessOrEqual" value="1.8499999642372131"/>
										<Node score="-0.6687531512235598">
											<SimplePredicate field="double(sepal length (cm))" operator="lessOrEqual" value="7.099999904632568"/>
										</Node>
									</Node>
									<Node score="-0.6672354650801973">
										<SimplePredicate field="double(sepal width (cm))" operator="lessOrEqual" value="2.75"/>
									</Node>
								</Node>
							</TreeModel>
						</Segment>
						<Segment id="54">
							<True/>
							<TreeModel functionName="regression" missingValueStrategy="nullPrediction" noTrueChildStrategy="returnLastPrediction">
								<MiningSchema>
									<MiningField name="double(petal width (cm))"/>
									<MiningField name="double(sepal length (cm))"/>
									<MiningField name="double(sepal width (cm))"/>
								</MiningSchema>
								<Node score="-0.6669919759663736">
									<True/>
									<Node score="0.6680537307697776">
										<SimplePredicate field="double(petal width (cm))" operator="lessOrEqual" value="0.800000011920929"/>
										<Node score="0.6678126338353509">
											<SimplePredicate field="double(sepal length (cm))" operator="lessOrEqual" value="5.3500001430511475"/>
											<Node score="0.6677665585459479">
												<SimplePredicate field="double(sepal length (cm))" operator="lessOrEqual" value="4.950000047683716"/>
											</Node>
										</Node>
										<Node score="0.6679231341250355">
											<SimplePredicate field="double(sepal width (cm))" operator="lessOrEqual" value="3.950000047683716"/>
										</Node>
									</Node>
									<Node score="-0.672823717318809">
										<SimplePredicate field="double(petal width (cm))" operator="lessOrEqual" value="1.8499999642372131"/>
										<Node score="-0.6686593868026082">
											<SimplePredicate field="double(sepal length (cm))" operator="lessOrEqual" value="7.099999904632568"/>
										</Node>
									</Node>
									<Node score="-0.667164026286948">
										<SimplePredicate field="double(sepal width (cm))" operator="lessOrEqual" value="2.75"/>
									</Node>
								</Node>
							</TreeModel>
						</Segment>
						<Segment id="55">
							<True/>
							<TreeModel functionName="regression" missingValueStrategy="nullPrediction" noTrueChildStrategy="returnLastPrediction">
								<MiningSchema>
									<MiningField name="double(petal width (cm))"/>
									<MiningField name="double(sepal length (cm))"/>
									<MiningField name="double(sepal width (cm))"/>
									<MiningField name="double(petal length (cm))"/>
								</MiningSchema>
								<Node score="-0.6669513148899054">
									<True/>
									<Node score="0.6679536658013151">
										<SimplePredicate field="double(petal length (cm))" operator="lessOrEqual" value="2.449999988079071"/>
										<Node score="0.6677012059243812">
											<SimplePredicate field="double(sepal length (cm))" operator="lessOrEqual" value="5.3500001430511475"/>
											<Node score="0.6678831512123077">
												<SimplePredicate field="double(sepal width (cm))" operator="lessOrEqual" value="2.600000023841858"/>
											</Node>
										</Node>
										<Node score="0.6678303002847396">
											<SimplePredicate field="double(sepal length (cm))" operator="lessOrEqual" value="5.450000047683716"/>
										</Node>
									</Node>
									<Node score="-0.6726597747059876">
										<SimplePredicate field="double(petal width (cm))" operator="lessOrEqual" value="1.8499999642372131"/>
										<Node score="-0.6685219752410634">
											<SimplePredicate field="double(sepal length (cm))" operator="lessOrEqual" value="7.099999904632568"/>
										</Node>
									</Node>
									<Node score="-0.6671020756153077">
										<SimplePredicate field="double(sepal width (cm))" operator="lessOrEqual" value="2.75"/>
									</Node>
								</Node>
							</TreeModel>
						</Segment>
						<Segment id="56">
							<True/>
							<TreeModel functionName="regression" missingValueStrategy="nullPrediction" noTrueChildStrategy="returnLastPrediction">
								<MiningSchema>
									<MiningField name="double(petal width (cm))"/>
									<MiningField name="double(sepal length (cm))"/>
									<MiningField name="double(sepal width (cm))"/>
									<MiningField name="double(petal length (cm))"/>
								</MiningSchema>
								<Node score="-0.6669169699370392">
									<True/>
									<Node score="0.6678972979973256">
										<SimplePredicate field="double(petal length (cm))" operator="lessOrEqual" value="2.449999988079071"/>
										<Node score="0.6677209499303588">
											<SimplePredicate field="double(sepal length (cm))" operator="lessOrEqual" value="5.450000047683716"/>
											<Node score="0.6676097620502869">
												<SimplePredicate field="double(sepal length (cm))" operator="lessOrEqual" value="5.3500001430511475"/>
											</Node>
										</Node>
										<Node score="0.6678972979973256">
											<SimplePredicate field="double(sepal length (cm))" operator="lessOrEqual" value="5.599999904632568"/>
										</Node>
									</Node>
									<Node score="-0.6719132108348589">
										<SimplePredicate field="double(petal width (cm))" operator="lessOrEqual" value="1.8499999642372131"/>
										<Node score="-0.6683579611334655">
											<SimplePredicate field="double(sepal length (cm))" operator="lessOrEqual" value="7.099999904632568"/>
										</Node>
									</Node>
									<Node score="-0.667081813936692">
										<SimplePredicate field="double(sepal width (cm))" operator="lessOrEqual" value="2.75"/>
									</Node>
								</Node>
							</TreeModel>
						</Segment>
						<Segment id="57">
							<True/>
							<TreeModel functionName="regression" missingValueStrategy="nullPrediction" noTrueChildStrategy="returnLastPrediction">
								<MiningSchema>
									<MiningField name="double(petal width (cm))"/>
									<MiningField name="double(sepal length (cm))"/>
									<MiningField name="double(sepal width (cm))"/>
									<MiningField name="double(petal length (cm))"/>
								</MiningSchema>
								<Node score="-0.666886883737242">
									<True/>
									<Node score="0.6678127178659496">
										<SimplePredicate field="double(petal length (cm))" operator="lessOrEqual" value="2.449999988079071"/>
										<Node score="0.6676472714258805">
											<SimplePredicate field="double(sepal length (cm))" operator="lessOrEqual" value="5.450000047683716"/>
											<Node score="0.6675429673315405">
												<SimplePredicate field="double(sepal length (cm))" operator="lessOrEqual" value="5.3500001430511475"/>
											</Node>
										</Node>
										<Node score="0.6678127178659496">
											<SimplePredicate field="double(sepal length (cm))" operator="lessOrEqual" value="5.599999904632568"/>
										</Node>
									</Node>
									<Node score="-0.6712676492630814">
										<SimplePredicate field="double(petal width (cm))" operator="lessOrEqual" value="1.8499999642372131"/>
										<Node score="-0.668176309003234">
											<SimplePredicate field="double(sepal length (cm))" operator="lessOrEqual" value="7.099999904632568"/>
										</Node>
									</Node>
									<Node score="-0.6670300821845793">
										<SimplePredicate field="double(sepal width (cm))" operator="lessOrEqual" value="2.75"/>
									</Node>
								</Node>
							</TreeModel>
						</Segment>
						<Segment id="58">
							<True/>
							<TreeModel functionName="regression" missingValueStrategy="nullPrediction" noTrueChildStrategy="returnLastPrediction">
								<MiningSchema>
									<MiningField name="double(petal width (cm))"/>
									<MiningField name="double(sepal length (cm))"/>
									<MiningField name="double(sepal width (cm))"/>
								</MiningSchema>
								<Node score="-0.6668714049754935">
									<True/>
									<Node score="0.667738393472952">
										<SimplePredicate field="double(petal width (cm))" operator="lessOrEqual" value="0.800000011920929"/>
										<Node score="0.6675809890390669">
											<SimplePredicate field="double(sepal length (cm))" operator="lessOrEqual" value="5.450000047683716"/>
											<Node score="0.6674831271706482">
												<SimplePredicate field="double(sepal length (cm))" operator="lessOrEqual" value="5.3500001430511475"/>
											</Node>
										</Node>
										<Node score="0.667738393472952">
											<SimplePredicate field="double(sepal length (cm))" operator="lessOrEqual" value="5.599999904632568"/>
										</Node>
									</Node>
									<Node score="-0.6709506322175769">
										<SimplePredicate field="double(petal width (cm))" operator="lessOrEqual" value="1.8499999642372131"/>
										<Node score="-0.6680521120223123">
											<SimplePredicate field="double(sepal length (cm))" operator="lessOrEqual" value="7.099999904632568"/>
										</Node>
									</Node>
									<Node score="-0.6670046120579164">
										<SimplePredicate field="double(sepal width (cm))" operator="lessOrEqual" value="2.75"/>
									</Node>
								</Node>
							</TreeModel>
						</Segment>
						<Segment id="59">
							<True/>
							<TreeModel functionName="regression" missingValueStrategy="nullPrediction" noTrueChildStrategy="returnLastPrediction">
								<MiningSchema>
									<MiningField name="double(petal width (cm))"/>
									<MiningField name="double(sepal length (cm))"/>
									<MiningField name="double(sepal width (cm))"/>
									<MiningField name="double(petal length (cm))"/>
								</MiningSchema>
								<Node score="-0.6668456797858499">
									<True/>
									<Node score="0.6676631970979289">
										<SimplePredicate field="double(petal length (cm))" operator="lessOrEqual" value="2.449999988079071"/>
										<Node score="0.6674276525440774">
											<SimplePredicate field="double(sepal length (cm))" operator="lessOrEqual" value="5.450000047683716"/>
											<Node score="0.6676301247434507">
												<SimplePredicate field="double(sepal width (cm))" operator="lessOrEqual" value="2.600000023841858"/>
											</Node>
										</Node>
									</Node>
									<Node score="-0.6705382331716098">
										<SimplePredicate field="double(petal width (cm))" operator="lessOrEqual" value="1.8499999642372131"/>
										<Node score="-0.6677662149358102">
											<SimplePredicate field="double(sepal width (cm))" operator="lessOrEqual" value="3.149999976158142"/>
										</Node>
									</Node>
									<Node score="-0.6669622656728347">
										<SimplePredicate field="double(sepal width (cm))" operator="lessOrEqual" value="2.75"/>
									</Node>
								</Node>
							</TreeModel>
						</Segment>
						<Segment id="60">
							<True/>
							<TreeModel functionName="regression" missingValueStrategy="nullPrediction" noTrueChildStrategy="returnLastPrediction">
								<MiningSchema>
									<MiningField name="double(petal width (cm))"/>
									<MiningField name="double(sepal length (cm))"/>
									<MiningField name="double(sepal width (cm))"/>
									<MiningField name="double(petal length (cm))"/>
								</MiningSchema>
								<Node score="-0.6668243255081104">
									<True/>
									<Node score="0.6676016251009839">
										<SimplePredicate field="double(petal length (cm))" operator="lessOrEqual" value="2.449999988079071"/>
										<Node score="0.6673797245136935">
											<SimplePredicate field="double(sepal length (cm))" operator="lessOrEqual" value="5.450000047683716"/>
											<Node score="0.6675704682581074">
												<SimplePredicate field="double(sepal width (cm))" operator="lessOrEqual" value="2.600000023841858"/>
											</Node>
										</Node>
									</Node>
									<Node score="-0.6702799943069457">
										<SimplePredicate field="double(petal width (cm))" operator="lessOrEqual" value="1.8499999642372131"/>
										<Node score="-0.6676454355106266">
											<SimplePredicate field="double(sepal width (cm))" operator="lessOrEqual" value="3.149999976158142"/>
										</Node>
									</Node>
									<Node score="-0.6669501768007945">
										<SimplePredicate field="double(sepal width (cm))" operator="lessOrEqual" value="2.75"/>
									</Node>
								</Node>
							</TreeModel>
						</Segment>
						<Segment id="61">
							<True/>
							<TreeModel functionName="regression" missingValueStrategy="nullPrediction" noTrueChildStrategy="returnLastPrediction">
								<MiningSchema>
									<MiningField name="double(petal width (cm))"/>
									<MiningField name="double(sepal length (cm))"/>
									<MiningField name="double(sepal width (cm))"/>
									<MiningField name="double(petal length (cm))"/>
								</MiningSchema>
								<Node score="-0.6668046381071675">
									<True/>
									<Node score="0.6675540226141843">
										<SimplePredicate field="double(petal length (cm))" operator="lessOrEqual" value="2.449999988079071"/>
										<Node score="0.6673421746728546">
											<SimplePredicate field="double(sepal length (cm))" operator="lessOrEqual" value="5.450000047683716"/>
											<Node score="0.6675242766773214">
												<SimplePredicate field="double(sepal width (cm))" operator="lessOrEqual" value="2.600000023841858"/>
											</Node>
										</Node>
									</Node>
									<Node score="-0.6698822762251873">
										<SimplePredicate field="double(petal width (cm))" operator="lessOrEqual" value="1.8499999642372131"/>
										<Node score="-0.6675373534559575">
											<SimplePredicate field="double(sepal width (cm))" operator="lessOrEqual" value="3.149999976158142"/>
										</Node>
									</Node>
									<Node score="-0.666914827975871">
										<SimplePredicate field="double(sepal width (cm))" operator="lessOrEqual" value="2.75"/>
									</Node>
								</Node>
							</TreeModel>
						</Segment>
						<Segment id="62">
							<True/>
							<TreeModel functionName="regression" missingValueStrategy="nullPrediction" noTrueChildStrategy="returnLastPrediction">
								<MiningSchema>
									<MiningField name="double(petal width (cm))"/>
									<MiningField name="double(sepal length (cm))"/>
									<MiningField name="double(sepal width (cm))"/>
								</MiningSchema>
								<Node score="-0.6667873304312865">
									<True/>
									<Node score="0.6674918569269181">
										<SimplePredicate field="double(petal width (cm))" operator="lessOrEqual" value="0.800000011920929"/>
										<Node score="0.6672989045288589">
											<SimplePredicate field="double(sepal length (cm))" operator="lessOrEqual" value="5.3500001430511475"/>
											<Node score="0.667245159625756">
												<SimplePredicate field="double(sepal length (cm))" operator="lessOrEqual" value="4.950000047683716"/>
											</Node>
										</Node>
										<Node score="0.6673660556506689">
											<SimplePredicate field="double(sepal length (cm))" operator="lessOrEqual" value="5.450000047683716"/>
										</Node>
									</Node>
									<Node score="-0.6695244938484811">
										<SimplePredicate field="double(petal width (cm))" operator="lessOrEqual" value="1.8499999642372131"/>
										<Node score="-0.667441496616519">
											<SimplePredicate field="double(sepal width (cm))" operator="lessOrEqual" value="3.149999976158142"/>
										</Node>
									</Node>
									<Node score="-0.6668837297806712">
										<SimplePredicate field="double(sepal width (cm))" operator="lessOrEqual" value="2.75"/>
									</Node>
								</Node>
							</TreeModel>
						</Segment>
						<Segment id="63">
							<True/>
							<TreeModel functionName="regression" missingValueStrategy="nullPrediction" noTrueChildStrategy="returnLastPrediction">
								<MiningSchema>
									<MiningField name="double(petal width (cm))"/>
									<MiningField name="double(sepal length (cm))"/>
									<MiningField name="double(sepal width (cm))"/>
								</MiningSchema>
								<Node score="-0.6667722564948461">
									<True/>
									<Node score="0.6674502508532101">
										<SimplePredicate field="double(petal width (cm))" operator="lessOrEqual" value="0.800000011920929"/>
										<Node score="0.6672443307205668">
											<SimplePredicate field="double(sepal length (cm))" operator="lessOrEqual" value="5.450000047683716"/>
											<Node score="0.6671844718700987">
												<SimplePredicate field="double(sepal length (cm))" operator="lessOrEqual" value="4.950000047683716"/>
											</Node>
										</Node>
										<Node score="0.6674502508532101">
											<SimplePredicate field="double(petal width (cm))" operator="lessOrEqual" value="0.30000000447034836"/>
										</Node>
									</Node>
									<Node score="-0.6692712227863312">
										<SimplePredicate field="double(petal width (cm))" operator="lessOrEqual" value="1.8499999642372131"/>
										<Node score="-0.6674072533741743">
											<SimplePredicate field="double(sepal width (cm))" operator="lessOrEqual" value="3.149999976158142"/>
										</Node>
									</Node>
									<Node score="-0.6668566316868747">
										<SimplePredicate field="double(sepal width (cm))" operator="lessOrEqual" value="2.75"/>
									</Node>
								</Node>
							</TreeModel>
						</Segment>
						<Segment id="64">
							<True/>
							<TreeModel functionName="regression" missingValueStrategy="nullPrediction" noTrueChildStrategy="returnLastPrediction">
								<MiningSchema>
									<MiningField name="double(petal width (cm))"/>
									<MiningField name="double(sepal length (cm))"/>
									<MiningField name="double(sepal width (cm))"/>
								</MiningSchema>
								<Node score="-0.6667634890734543">
									<True/>
									<Node score="0.6674079971637208">
										<SimplePredicate field="double(petal width (cm))" operator="lessOrEqual" value="0.800000011920929"/>
										<Node score="0.667212402476459">
											<SimplePredicate field="double(sepal length (cm))" operator="lessOrEqual" value="5.450000047683716"/>
											<Node score="0.6671578907558424">
												<SimplePredicate field="double(sepal length (cm))" operator="lessOrEqual" value="4.950000047683716"/>
											</Node>
										</Node>
									</Node>
									<Node score="-0.6690737318778458">
										<SimplePredicate field="double(petal width (cm))" operator="lessOrEqual" value="1.8499999642372131"/>
										<Node score="-0.6673230322404632">
											<SimplePredicate field="double(sepal width (cm))" operator="lessOrEqual" value="3.149999976158142"/>
										</Node>
									</Node>
									<Node score="-0.666832851618605">
										<SimplePredicate field="double(sepal width (cm))" operator="lessOrEqual" value="2.75"/>
									</Node>
								</Node>
							</TreeModel>
						</Segment>
						<Segment id="65">
							<True/>
							<TreeModel functionName="regression" missingValueStrategy="nullPrediction" noTrueChildStrategy="returnLastPrediction">
								<MiningSchema>
									<MiningField name="double(petal width (cm))"/>
									<MiningField name="double(sepal length (cm))"/>
									<MiningField name="double(sepal width (cm))"/>
									<MiningField name="double(petal length (cm))"/>
								</MiningSchema>
								<Node score="-0.6667513981369055">
									<True/>
									<Node score="0.6673458370305365">
										<SimplePredicate field="double(petal length (cm))" operator="lessOrEqual" value="2.449999988079071"/>
										<Node score="0.6671652140559629">
											<SimplePredicate field="double(sepal length (cm))" operator="lessOrEqual" value="5.450000047683716"/>
											<Node score="0.667114904704815">
												<SimplePredicate field="double(sepal length (cm))" operator="lessOrEqual" value="4.950000047683716"/>
											</Node>
										</Node>
									</Node>
									<Node score="-0.668874511819428">
										<SimplePredicate field="double(petal width (cm))" operator="lessOrEqual" value="1.8499999642372131"/>
										<Node score="-0.6672553883695056">
											<SimplePredicate field="double(sepal width (cm))" operator="lessOrEqual" value="3.149999976158142"/>
										</Node>
									</Node>
									<Node score="-0.6668120436419975">
										<SimplePredicate field="double(sepal width (cm))" operator="lessOrEqual" value="2.75"/>
									</Node>
								</Node>
							</TreeModel>
						</Segment>
						<Segment id="66">
							<True/>
							<TreeModel functionName="regression" missingValueStrategy="nullPrediction" noTrueChildStrategy="returnLastPrediction">
								<MiningSchema>
									<MiningField name="double(petal width (cm))"/>
									<MiningField name="double(sepal length (cm))"/>
									<MiningField name="double(sepal width (cm))"/>
									<MiningField name="double(petal length (cm))"/>
								</MiningSchema>
								<Node score="-0.6667439038960001">
									<True/>
									<Node score="0.6672999719655931">
										<SimplePredicate field="double(petal length (cm))" operator="lessOrEqual" value="2.449999988079071"/>
										<Node score="0.6671297988672515">
											<SimplePredicate field="double(sepal length (cm))" operator="lessOrEqual" value="5.450000047683716"/>
											<Node score="0.6670850961309885">
												<SimplePredicate field="double(sepal length (cm))" operator="lessOrEqual" value="4.950000047683716"/>
											</Node>
										</Node>
										<Node score="0.6672999719655931">
											<SimplePredicate field="double(sepal length (cm))" operator="lessOrEqual" value="5.599999904632568"/>
										</Node>
									</Node>
									<Node score="-0.6687162425047748">
										<SimplePredicate field="double(petal width (cm))" operator="lessOrEqual" value="1.8499999642372131"/>
										<Node score="-0.6672267083943954">
											<SimplePredicate field="double(sepal width (cm))" operator="lessOrEqual" value="3.149999976158142"/>
										</Node>
									</Node>
									<Node score="-0.6667992028989381">
